<?xml version="1.0"?>
<opencv_storage>
<stage0>
  <maxWeakCount>8</maxWeakCount>
  <stageThreshold>-6.0783213376998901e-01</stageThreshold>
  <weakClassifiers>
    <_>
      <internalNodes>
        0 -1 8415537 -2.0629998471122235e-04</internalNodes>
      <leafValues>
        3.9534884691238403e-01 -5.0617283582687378e-01</leafValues></_>
    <_>
      <internalNodes>
        0 -1 2701650 -1.5300983190536499e-01</internalNodes>
      <leafValues>
        6.1575436592102051e-01 -2.4886922538280487e-01</leafValues></_>
    <_>
      <internalNodes>
        0 -1 8400056 1.1560845188796520e-02</internalNodes>
      <leafValues>
        -2.3692110180854797e-01 5.4461771249771118e-01</leafValues></_>
    <_>
      <internalNodes>
        0 -1 3794930 -2.6270400732755661e-02</internalNodes>
      <leafValues>
        5.6796163320541382e-01 -2.1078851819038391e-01</leafValues></_>
    <_>
      <internalNodes>
        0 -1 3457039 6.9946283474564552e-03</internalNodes>
      <leafValues>
        -2.2454543411731720e-01 6.7438840866088867e-01</leafValues></_>
    <_>
      <internalNodes>
        0 -1 8550160 1.6563775716349483e-04</internalNodes>
      <leafValues>
        2.0953734219074249e-01 -7.9112702608108521e-01</leafValues></_>
    <_>
      <internalNodes>
        0 -1 8158779 -1.2180057819932699e-03</internalNodes>
      <leafValues>
        5.2987158298492432e-01 -2.7050417661666870e-01</leafValues></_>
    <_>
      <internalNodes>
        0 -1 8418435 2.2487825481221080e-04</internalNodes>
      <leafValues>
        1.9803567230701447e-01 -7.4933737516403198e-01</leafValues></_></weakClassifiers></stage0>
</opencv_storage>
